{
  "n_features": 12,
  "n_classes": 3,
  "w": [
    -0.13613193757913855,
    0.7663596450962218,
    -0.635839891629328,
    -0.10936979493269473,
    0.4839455697157304,
    -0.3670261823384706,
    -0.09654020288415055,
    0.6452964264577786,
    -0.5501103100071185,
    -0.056186398412335664,
    -0.21274062184812556,
    0.291065580844102,
    -0.10177968799645924,
    0.7744021752227929,
    -0.6589219743300783,
    -0.07365490985362806,
    0.391224795554127,
    -0.3210446470104212,
    -0.09863250909178811,
    0.8623125953339942,
    -0.7587324874299031,
    -0.657896958092861,
    -0.07655848608930292,
    0.7417537017391711,
    -0.31091398676639903,
    -1.3120249641079214,
    1.638433419052634,
    -0.0946881203413924,
    -0.3807527172297326,
    0.46235097423061267,
    -0.07042791487202381,
    -0.47999296098040267,
    0.5465016713843922,
    -0.12959506976982474,
    -0.814683762765152,
    0.9386662734169491
  ],
  "b": [
    -0.24878118483006814,
    0.7852424148297478,
    -0.5364612299996788
  ],
  "lr": 0.1,
  "n_iter": 3000,
  "reg_lambda": 0.001
}